#pragma once
#include <cstdarg>
namespace Eloquent {
    namespace ML {
        namespace Port {
            class RandomForest {
                public:
                    /**
                    * Predict class for features vector
                    */
                    int predict(float *x) {
                        uint8_t votes[2] = { 0 };
                        // tree #1
                        if (x[3] <= 0.2849999964237213) {
                            if (x[5] <= -2.5649999380111694) {
                                if (x[0] <= 1850.5) {
                                    if (x[0] <= 875.0) {
                                        if (x[4] <= 8.209999561309814) {
                                            if (x[1] <= 0.7649999856948853) {
                                                if (x[3] <= -0.7150000035762787) {
                                                    if (x[0] <= 734.0) {
                                                        if (x[4] <= 3.350000023841858) {
                                                            votes[0] += 1;
                                                        }

                                                        else {
                                                            votes[1] += 1;
                                                        }
                                                    }

                                                    else {
                                                        votes[0] += 1;
                                                    }
                                                }

                                                else {
                                                    votes[0] += 1;
                                                }
                                            }

                                            else {
                                                votes[0] += 1;
                                            }
                                        }

                                        else {
                                            if (x[5] <= -3.059999942779541) {
                                                if (x[4] <= 8.740000247955322) {
                                                    if (x[0] <= 164.0) {
                                                        votes[0] += 1;
                                                    }

                                                    else {
                                                        votes[1] += 1;
                                                    }
                                                }

                                                else {
                                                    votes[1] += 1;
                                                }
                                            }

                                            else {
                                                if (x[2] <= 0.03499999921768904) {
                                                    if (x[3] <= -0.08499999716877937) {
                                                        if (x[5] <= -2.6850000619888306) {
                                                            votes[0] += 1;
                                                        }

                                                        else {
                                                            if (x[3] <= -0.16499999910593033) {
                                                                votes[1] += 1;
                                                            }

                                                            else {
                                                                votes[0] += 1;
                                                            }
                                                        }
                                                    }

                                                    else {
                                                        votes[1] += 1;
                                                    }
                                                }

                                                else {
                                                    if (x[1] <= -0.5049999915063381) {
                                                        votes[1] += 1;
                                                    }

                                                    else {
                                                        votes[0] += 1;
                                                    }
                                                }
                                            }
                                        }
                                    }

                                    else {
                                        if (x[2] <= 2.125) {
                                            if (x[3] <= 0.14500000327825546) {
                                                votes[0] += 1;
                                            }

                                            else {
                                                if (x[4] <= -6.884999990463257) {
                                                    if (x[4] <= -8.644999980926514) {
                                                        votes[0] += 1;
                                                    }

                                                    else {
                                                        votes[1] += 1;
                                                    }
                                                }

                                                else {
                                                    if (x[0] <= 1529.5) {
                                                        votes[0] += 1;
                                                    }

                                                    else {
                                                        if (x[0] <= 1596.5) {
                                                            votes[1] += 1;
                                                        }

                                                        else {
                                                            votes[0] += 1;
                                                        }
                                                    }
                                                }
                                            }
                                        }

                                        else {
                                            if (x[5] <= -3.4100000858306885) {
                                                if (x[5] <= -4.134999990463257) {
                                                    votes[0] += 1;
                                                }

                                                else {
                                                    if (x[2] <= 6.134999752044678) {
                                                        votes[1] += 1;
                                                    }

                                                    else {
                                                        votes[0] += 1;
                                                    }
                                                }
                                            }

                                            else {
                                                if (x[2] <= 7.284999847412109) {
                                                    votes[1] += 1;
                                                }

                                                else {
                                                    votes[0] += 1;
                                                }
                                            }
                                        }
                                    }
                                }

                                else {
                                    if (x[1] <= 1.2950000166893005) {
                                        if (x[0] <= 2235.0) {
                                            if (x[2] <= -0.42000000178813934) {
                                                if (x[5] <= -8.625) {
                                                    votes[1] += 1;
                                                }

                                                else {
                                                    if (x[4] <= 6.519999980926514) {
                                                        votes[0] += 1;
                                                    }

                                                    else {
                                                        if (x[3] <= 0.09500000160187483) {
                                                            votes[0] += 1;
                                                        }

                                                        else {
                                                            votes[1] += 1;
                                                        }
                                                    }
                                                }
                                            }

                                            else {
                                                if (x[3] <= -2.450000047683716) {
                                                    if (x[4] <= -1.604999989271164) {
                                                        votes[0] += 1;
                                                    }

                                                    else {
                                                        if (x[5] <= -5.4049999713897705) {
                                                            votes[0] += 1;
                                                        }

                                                        else {
                                                            votes[1] += 1;
                                                        }
                                                    }
                                                }

                                                else {
                                                    if (x[3] <= -0.7849999964237213) {
                                                        if (x[2] <= 2.0899999737739563) {
                                                            votes[0] += 1;
                                                        }

                                                        else {
                                                            if (x[2] <= 7.539999723434448) {
                                                                votes[1] += 1;
                                                            }

                                                            else {
                                                                votes[0] += 1;
                                                            }
                                                        }
                                                    }

                                                    else {
                                                        if (x[4] <= 7.200000047683716) {
                                                            if (x[2] <= 1.4200000166893005) {
                                                                votes[0] += 1;
                                                            }

                                                            else {
                                                                votes[1] += 1;
                                                            }
                                                        }

                                                        else {
                                                            votes[1] += 1;
                                                        }
                                                    }
                                                }
                                            }
                                        }

                                        else {
                                            if (x[2] <= -0.13999999687075615) {
                                                votes[0] += 1;
                                            }

                                            else {
                                                if (x[3] <= -0.20500000193715096) {
                                                    votes[0] += 1;
                                                }

                                                else {
                                                    if (x[5] <= -3.0049999952316284) {
                                                        if (x[2] <= 0.22999999672174454) {
                                                            votes[1] += 1;
                                                        }

                                                        else {
                                                            votes[0] += 1;
                                                        }
                                                    }

                                                    else {
                                                        votes[1] += 1;
                                                    }
                                                }
                                            }
                                        }
                                    }

                                    else {
                                        votes[1] += 1;
                                    }
                                }
                            }

                            else {
                                if (x[2] <= -0.6550000011920929) {
                                    if (x[2] <= -3.8799999952316284) {
                                        if (x[0] <= 1863.0) {
                                            votes[0] += 1;
                                        }

                                        else {
                                            if (x[0] <= 1915.0) {
                                                votes[1] += 1;
                                            }

                                            else {
                                                votes[0] += 1;
                                            }
                                        }
                                    }

                                    else {
                                        if (x[1] <= 0.41499999165534973) {
                                            if (x[4] <= -7.994999885559082) {
                                                if (x[0] <= 2162.5) {
                                                    votes[0] += 1;
                                                }

                                                else {
                                                    votes[1] += 1;
                                                }
                                            }

                                            else {
                                                if (x[4] <= -3.7549999952316284) {
                                                    if (x[3] <= -0.5900000222027302) {
                                                        votes[0] += 1;
                                                    }

                                                    else {
                                                        votes[1] += 1;
                                                    }
                                                }

                                                else {
                                                    if (x[3] <= -0.17500000447034836) {
                                                        if (x[0] <= 1056.5) {
                                                            votes[1] += 1;
                                                        }

                                                        else {
                                                            votes[0] += 1;
                                                        }
                                                    }

                                                    else {
                                                        if (x[2] <= -1.2549999952316284) {
                                                            if (x[0] <= 2106.5) {
                                                                votes[1] += 1;
                                                            }

                                                            else {
                                                                votes[0] += 1;
                                                            }
                                                        }

                                                        else {
                                                            if (x[5] <= -1.64000004529953) {
                                                                votes[0] += 1;
                                                            }

                                                            else {
                                                                votes[1] += 1;
                                                            }
                                                        }
                                                    }
                                                }
                                            }
                                        }

                                        else {
                                            if (x[4] <= 0.7849999964237213) {
                                                if (x[0] <= 1235.0) {
                                                    if (x[2] <= -2.5199999809265137) {
                                                        votes[1] += 1;
                                                    }

                                                    else {
                                                        votes[0] += 1;
                                                    }
                                                }

                                                else {
                                                    votes[0] += 1;
                                                }
                                            }

                                            else {
                                                votes[0] += 1;
                                            }
                                        }
                                    }
                                }

                                else {
                                    if (x[2] <= 8.694999694824219) {
                                        if (x[4] <= -9.994999885559082) {
                                            if (x[2] <= 2.5799999237060547) {
                                                votes[0] += 1;
                                            }

                                            else {
                                                if (x[3] <= -2.190000057220459) {
                                                    votes[0] += 1;
                                                }

                                                else {
                                                    if (x[3] <= -0.9200000166893005) {
                                                        if (x[5] <= 15.944999694824219) {
                                                            votes[1] += 1;
                                                        }

                                                        else {
                                                            votes[0] += 1;
                                                        }
                                                    }

                                                    else {
                                                        if (x[5] <= 2.8350000381469727) {
                                                            votes[1] += 1;
                                                        }

                                                        else {
                                                            if (x[5] <= 3.2200000286102295) {
                                                                votes[0] += 1;
                                                            }

                                                            else {
                                                                votes[1] += 1;
                                                            }
                                                        }
                                                    }
                                                }
                                            }
                                        }

                                        else {
                                            if (x[0] <= 2477.5) {
                                                if (x[2] <= 0.024999999441206455) {
                                                    if (x[5] <= 4.884999990463257) {
                                                        if (x[4] <= 8.4399995803833) {
                                                            if (x[0] <= 333.5) {
                                                                votes[0] += 1;
                                                            }

                                                            else {
                                                                votes[1] += 1;
                                                            }
                                                        }

                                                        else {
                                                            if (x[1] <= -0.9349999725818634) {
                                                                votes[0] += 1;
                                                            }

                                                            else {
                                                                votes[1] += 1;
                                                            }
                                                        }
                                                    }

                                                    else {
                                                        if (x[5] <= 13.40500020980835) {
                                                            if (x[0] <= 952.5) {
                                                                votes[1] += 1;
                                                            }

                                                            else {
                                                                votes[0] += 1;
                                                            }
                                                        }

                                                        else {
                                                            votes[1] += 1;
                                                        }
                                                    }
                                                }

                                                else {
                                                    if (x[3] <= 0.13499999791383743) {
                                                        if (x[1] <= 1.625) {
                                                            if (x[3] <= 0.10500000044703484) {
                                                                votes[1] += 1;
                                                            }

                                                            else {
                                                                votes[1] += 1;
                                                            }
                                                        }

                                                        else {
                                                            if (x[5] <= 6.369999885559082) {
                                                                votes[0] += 1;
                                                            }

                                                            else {
                                                                votes[1] += 1;
                                                            }
                                                        }
                                                    }

                                                    else {
                                                        if (x[0] <= 1329.0) {
                                                            votes[1] += 1;
                                                        }

                                                        else {
                                                            if (x[4] <= 9.734999656677246) {
                                                                votes[0] += 1;
                                                            }

                                                            else {
                                                                votes[0] += 1;
                                                            }
                                                        }
                                                    }
                                                }
                                            }

                                            else {
                                                if (x[4] <= 7.440000057220459) {
                                                    if (x[0] <= 2497.0) {
                                                        if (x[4] <= 4.980000019073486) {
                                                            votes[0] += 1;
                                                        }

                                                        else {
                                                            if (x[1] <= -0.2150000035762787) {
                                                                votes[0] += 1;
                                                            }

                                                            else {
                                                                votes[1] += 1;
                                                            }
                                                        }
                                                    }

                                                    else {
                                                        if (x[4] <= 6.8450000286102295) {
                                                            votes[0] += 1;
                                                        }

                                                        else {
                                                            if (x[2] <= -0.04499999899417162) {
                                                                votes[0] += 1;
                                                            }

                                                            else {
                                                                votes[1] += 1;
                                                            }
                                                        }
                                                    }
                                                }

                                                else {
                                                    if (x[2] <= 0.28499999176710844) {
                                                        votes[1] += 1;
                                                    }

                                                    else {
                                                        votes[0] += 1;
                                                    }
                                                }
                                            }
                                        }
                                    }

                                    else {
                                        if (x[5] <= 0.015000000596046448) {
                                            votes[0] += 1;
                                        }

                                        else {
                                            if (x[0] <= 2124.5) {
                                                if (x[4] <= -15.375) {
                                                    votes[0] += 1;
                                                }

                                                else {
                                                    if (x[3] <= -1.5600000321865082) {
                                                        votes[0] += 1;
                                                    }

                                                    else {
                                                        votes[1] += 1;
                                                    }
                                                }
                                            }

                                            else {
                                                if (x[0] <= 2217.5) {
                                                    votes[1] += 1;
                                                }

                                                else {
                                                    votes[0] += 1;
                                                }
                                            }
                                        }
                                    }
                                }
                            }
                        }

                        else {
                            if (x[3] <= 1.465000033378601) {
                                if (x[5] <= -0.26000000536441803) {
                                    if (x[4] <= 9.125) {
                                        if (x[1] <= 2.2100000381469727) {
                                            if (x[1] <= -2.2450000047683716) {
                                                if (x[4] <= 2.9399999380111694) {
                                                    votes[1] += 1;
                                                }

                                                else {
                                                    votes[0] += 1;
                                                }
                                            }

                                            else {
                                                if (x[3] <= 1.4550000429153442) {
                                                    if (x[3] <= 0.9350000023841858) {
                                                        if (x[4] <= -10.975000381469727) {
                                                            votes[0] += 1;
                                                        }

                                                        else {
                                                            if (x[0] <= 1528.0) {
                                                                votes[0] += 1;
                                                            }

                                                            else {
                                                                votes[0] += 1;
                                                            }
                                                        }
                                                    }

                                                    else {
                                                        if (x[2] <= 4.294999957084656) {
                                                            if (x[2] <= -5.119999885559082) {
                                                                votes[0] += 1;
                                                            }

                                                            else {
                                                                votes[0] += 1;
                                                            }
                                                        }

                                                        else {
                                                            if (x[1] <= -0.6599999759346247) {
                                                                votes[1] += 1;
                                                            }

                                                            else {
                                                                votes[0] += 1;
                                                            }
                                                        }
                                                    }
                                                }

                                                else {
                                                    votes[1] += 1;
                                                }
                                            }
                                        }

                                        else {
                                            if (x[5] <= -10.670000076293945) {
                                                votes[0] += 1;
                                            }

                                            else {
                                                if (x[3] <= 0.995000034570694) {
                                                    votes[1] += 1;
                                                }

                                                else {
                                                    if (x[0] <= 1872.0) {
                                                        votes[0] += 1;
                                                    }

                                                    else {
                                                        votes[1] += 1;
                                                    }
                                                }
                                            }
                                        }
                                    }

                                    else {
                                        if (x[1] <= -0.5799999833106995) {
                                            votes[0] += 1;
                                        }

                                        else {
                                            if (x[2] <= -0.4699999988079071) {
                                                if (x[4] <= 9.744999885559082) {
                                                    votes[1] += 1;
                                                }

                                                else {
                                                    if (x[2] <= -1.7099999785423279) {
                                                        votes[0] += 1;
                                                    }

                                                    else {
                                                        votes[1] += 1;
                                                    }
                                                }
                                            }

                                            else {
                                                if (x[0] <= 1995.0) {
                                                    votes[0] += 1;
                                                }

                                                else {
                                                    votes[1] += 1;
                                                }
                                            }
                                        }
                                    }
                                }

                                else {
                                    if (x[5] <= 7.134999990463257) {
                                        if (x[5] <= 1.2649999856948853) {
                                            if (x[0] <= 1272.5) {
                                                if (x[2] <= -4.670000076293945) {
                                                    votes[0] += 1;
                                                }

                                                else {
                                                    if (x[4] <= -9.209999799728394) {
                                                        votes[0] += 1;
                                                    }

                                                    else {
                                                        votes[1] += 1;
                                                    }
                                                }
                                            }

                                            else {
                                                if (x[1] <= 0.3500000089406967) {
                                                    if (x[1] <= -0.41499999165534973) {
                                                        if (x[3] <= 1.215000033378601) {
                                                            if (x[5] <= 0.034999996423721313) {
                                                                votes[1] += 1;
                                                            }

                                                            else {
                                                                votes[0] += 1;
                                                            }
                                                        }

                                                        else {
                                                            if (x[5] <= 1.1850000023841858) {
                                                                votes[1] += 1;
                                                            }

                                                            else {
                                                                votes[0] += 1;
                                                            }
                                                        }
                                                    }

                                                    else {
                                                        if (x[2] <= -0.1550000011920929) {
                                                            if (x[1] <= 0.17500000447034836) {
                                                                votes[0] += 1;
                                                            }

                                                            else {
                                                                votes[1] += 1;
                                                            }
                                                        }

                                                        else {
                                                            if (x[3] <= 0.5499999821186066) {
                                                                votes[1] += 1;
                                                            }

                                                            else {
                                                                votes[1] += 1;
                                                            }
                                                        }
                                                    }
                                                }

                                                else {
                                                    votes[0] += 1;
                                                }
                                            }
                                        }

                                        else {
                                            if (x[2] <= -7.2250001430511475) {
                                                if (x[0] <= 2138.5) {
                                                    votes[0] += 1;
                                                }

                                                else {
                                                    if (x[4] <= -7.044999837875366) {
                                                        if (x[0] <= 2206.5) {
                                                            votes[1] += 1;
                                                        }

                                                        else {
                                                            votes[0] += 1;
                                                        }
                                                    }

                                                    else {
                                                        votes[1] += 1;
                                                    }
                                                }
                                            }

                                            else {
                                                if (x[1] <= -1.3600000143051147) {
                                                    votes[0] += 1;
                                                }

                                                else {
                                                    if (x[1] <= 2.399999976158142) {
                                                        if (x[2] <= 0.12500000186264515) {
                                                            if (x[0] <= 2301.0) {
                                                                votes[1] += 1;
                                                            }

                                                            else {
                                                                votes[0] += 1;
                                                            }
                                                        }

                                                        else {
                                                            if (x[4] <= -10.680000305175781) {
                                                                votes[0] += 1;
                                                            }

                                                            else {
                                                                votes[1] += 1;
                                                            }
                                                        }
                                                    }

                                                    else {
                                                        if (x[4] <= 0.5999999046325684) {
                                                            votes[1] += 1;
                                                        }

                                                        else {
                                                            votes[0] += 1;
                                                        }
                                                    }
                                                }
                                            }
                                        }
                                    }

                                    else {
                                        if (x[3] <= 0.7450000047683716) {
                                            if (x[3] <= 0.7100000083446503) {
                                                if (x[2] <= -0.9149999916553497) {
                                                    votes[0] += 1;
                                                }

                                                else {
                                                    if (x[5] <= 13.355000019073486) {
                                                        votes[0] += 1;
                                                    }

                                                    else {
                                                        if (x[0] <= 1554.0) {
                                                            votes[0] += 1;
                                                        }

                                                        else {
                                                            votes[1] += 1;
                                                        }
                                                    }
                                                }
                                            }

                                            else {
                                                votes[1] += 1;
                                            }
                                        }

                                        else {
                                            if (x[5] <= 15.575000286102295) {
                                                votes[0] += 1;
                                            }

                                            else {
                                                if (x[2] <= -0.9699999988079071) {
                                                    votes[1] += 1;
                                                }

                                                else {
                                                    votes[0] += 1;
                                                }
                                            }
                                        }
                                    }
                                }
                            }

                            else {
                                if (x[4] <= -7.509999990463257) {
                                    if (x[3] <= 1.625) {
                                        if (x[1] <= -2.209999918937683) {
                                            votes[1] += 1;
                                        }

                                        else {
                                            votes[0] += 1;
                                        }
                                    }

                                    else {
                                        if (x[3] <= 1.7899999618530273) {
                                            if (x[2] <= 4.5350000858306885) {
                                                votes[0] += 1;
                                            }

                                            else {
                                                if (x[1] <= -5.669999718666077) {
                                                    votes[0] += 1;
                                                }

                                                else {
                                                    if (x[5] <= -6.425000190734863) {
                                                        votes[1] += 1;
                                                    }

                                                    else {
                                                        votes[0] += 1;
                                                    }
                                                }
                                            }
                                        }

                                        else {
                                            votes[0] += 1;
                                        }
                                    }
                                }

                                else {
                                    if (x[2] <= -1.5049999952316284) {
                                        if (x[0] <= 2313.5) {
                                            if (x[0] <= 2159.5) {
                                                if (x[5] <= 4.3500001430511475) {
                                                    if (x[5] <= -0.9150000214576721) {
                                                        if (x[0] <= 917.0) {
                                                            if (x[1] <= -0.21000000089406967) {
                                                                votes[0] += 1;
                                                            }

                                                            else {
                                                                votes[1] += 1;
                                                            }
                                                        }

                                                        else {
                                                            votes[0] += 1;
                                                        }
                                                    }

                                                    else {
                                                        if (x[1] <= 0.32500000298023224) {
                                                            if (x[2] <= -6.990000009536743) {
                                                                votes[0] += 1;
                                                            }

                                                            else {
                                                                votes[0] += 1;
                                                            }
                                                        }

                                                        else {
                                                            votes[0] += 1;
                                                        }
                                                    }
                                                }

                                                else {
                                                    if (x[2] <= -3.899999976158142) {
                                                        votes[1] += 1;
                                                    }

                                                    else {
                                                        votes[0] += 1;
                                                    }
                                                }
                                            }

                                            else {
                                                if (x[4] <= 2.465000033378601) {
                                                    votes[1] += 1;
                                                }

                                                else {
                                                    if (x[4] <= 5.105000019073486) {
                                                        if (x[3] <= 1.840000033378601) {
                                                            if (x[4] <= 3.434999942779541) {
                                                                votes[0] += 1;
                                                            }

                                                            else {
                                                                votes[1] += 1;
                                                            }
                                                        }

                                                        else {
                                                            votes[0] += 1;
                                                        }
                                                    }

                                                    else {
                                                        if (x[2] <= -4.125) {
                                                            votes[0] += 1;
                                                        }

                                                        else {
                                                            votes[1] += 1;
                                                        }
                                                    }
                                                }
                                            }
                                        }

                                        else {
                                            votes[0] += 1;
                                        }
                                    }

                                    else {
                                        if (x[0] <= 1625.5) {
                                            votes[0] += 1;
                                        }

                                        else {
                                            if (x[4] <= 8.34000015258789) {
                                                votes[1] += 1;
                                            }

                                            else {
                                                votes[0] += 1;
                                            }
                                        }
                                    }
                                }
                            }
                        }

                        // tree #2
                        if (x[2] <= -0.6150000095367432) {
                            if (x[3] <= -0.17500000447034836) {
                                if (x[1] <= 1.7699999809265137) {
                                    if (x[3] <= -0.20499999821186066) {
                                        if (x[4] <= 9.565000057220459) {
                                            votes[0] += 1;
                                        }

                                        else {
                                            if (x[3] <= -0.6450000107288361) {
                                                votes[0] += 1;
                                            }

                                            else {
                                                votes[1] += 1;
                                            }
                                        }
                                    }

                                    else {
                                        if (x[4] <= 7.934999942779541) {
                                            votes[0] += 1;
                                        }

                                        else {
                                            votes[1] += 1;
                                        }
                                    }
                                }

                                else {
                                    if (x[2] <= -1.1299999952316284) {
                                        if (x[4] <= -3.424999952316284) {
                                            if (x[3] <= -0.5549999922513962) {
                                                votes[0] += 1;
                                            }

                                            else {
                                                votes[1] += 1;
                                            }
                                        }

                                        else {
                                            votes[0] += 1;
                                        }
                                    }

                                    else {
                                        votes[1] += 1;
                                    }
                                }
                            }

                            else {
                                if (x[1] <= -0.9050000011920929) {
                                    if (x[3] <= 1.1399999856948853) {
                                        if (x[1] <= -0.9300000071525574) {
                                            votes[0] += 1;
                                        }

                                        else {
                                            if (x[3] <= 0.02500000037252903) {
                                                votes[1] += 1;
                                            }

                                            else {
                                                votes[0] += 1;
                                            }
                                        }
                                    }

                                    else {
                                        if (x[3] <= 2.034999966621399) {
                                            if (x[4] <= 4.359999895095825) {
                                                if (x[4] <= -5.390000104904175) {
                                                    votes[0] += 1;
                                                }

                                                else {
                                                    if (x[1] <= -2.400000035762787) {
                                                        votes[0] += 1;
                                                    }

                                                    else {
                                                        votes[1] += 1;
                                                    }
                                                }
                                            }

                                            else {
                                                votes[0] += 1;
                                            }
                                        }

                                        else {
                                            votes[0] += 1;
                                        }
                                    }
                                }

                                else {
                                    if (x[4] <= 9.40500020980835) {
                                        if (x[0] <= 161.5) {
                                            if (x[5] <= -3.5449999570846558) {
                                                if (x[4] <= 8.545000076293945) {
                                                    votes[0] += 1;
                                                }

                                                else {
                                                    votes[1] += 1;
                                                }
                                            }

                                            else {
                                                votes[0] += 1;
                                            }
                                        }

                                        else {
                                            if (x[1] <= 0.7450000047683716) {
                                                if (x[0] <= 209.5) {
                                                    if (x[5] <= -2.9100000858306885) {
                                                        votes[0] += 1;
                                                    }

                                                    else {
                                                        votes[1] += 1;
                                                    }
                                                }

                                                else {
                                                    if (x[2] <= -1.774999976158142) {
                                                        if (x[2] <= -5.734999895095825) {
                                                            if (x[0] <= 2149.5) {
                                                                votes[0] += 1;
                                                            }

                                                            else {
                                                                votes[1] += 1;
                                                            }
                                                        }

                                                        else {
                                                            if (x[4] <= -7.474999904632568) {
                                                                votes[0] += 1;
                                                            }

                                                            else {
                                                                votes[1] += 1;
                                                            }
                                                        }
                                                    }

                                                    else {
                                                        if (x[5] <= 1.4599999785423279) {
                                                            if (x[4] <= 7.81000018119812) {
                                                                votes[0] += 1;
                                                            }

                                                            else {
                                                                votes[1] += 1;
                                                            }
                                                        }

                                                        else {
                                                            if (x[4] <= -6.545000076293945) {
                                                                votes[0] += 1;
                                                            }

                                                            else {
                                                                votes[1] += 1;
                                                            }
                                                        }
                                                    }
                                                }
                                            }

                                            else {
                                                if (x[0] <= 1734.0) {
                                                    if (x[2] <= -4.6600000858306885) {
                                                        votes[0] += 1;
                                                    }

                                                    else {
                                                        if (x[0] <= 310.0) {
                                                            votes[1] += 1;
                                                        }

                                                        else {
                                                            votes[0] += 1;
                                                        }
                                                    }
                                                }

                                                else {
                                                    if (x[0] <= 2300.5) {
                                                        if (x[1] <= 0.8149999976158142) {
                                                            votes[0] += 1;
                                                        }

                                                        else {
                                                            if (x[2] <= -2.559999942779541) {
                                                                votes[1] += 1;
                                                            }

                                                            else {
                                                                votes[1] += 1;
                                                            }
                                                        }
                                                    }

                                                    else {
                                                        votes[0] += 1;
                                                    }
                                                }
                                            }
                                        }
                                    }

                                    else {
                                        if (x[0] <= 1293.5) {
                                            votes[1] += 1;
                                        }

                                        else {
                                            if (x[2] <= -1.4200000166893005) {
                                                votes[0] += 1;
                                            }

                                            else {
                                                if (x[1] <= -0.4000000022351742) {
                                                    votes[0] += 1;
                                                }

                                                else {
                                                    if (x[5] <= 1.5850000083446503) {
                                                        votes[1] += 1;
                                                    }

                                                    else {
                                                        votes[0] += 1;
                                                    }
                                                }
                                            }
                                        }
                                    }
                                }
                            }
                        }

                        else {
                            if (x[2] <= 8.714999675750732) {
                                if (x[4] <= 7.045000076293945) {
                                    if (x[4] <= -13.724999904632568) {
                                        if (x[0] <= 2133.0) {
                                            if (x[2] <= 8.245000123977661) {
                                                if (x[3] <= 0.3449999988079071) {
                                                    if (x[3] <= 0.33500000834465027) {
                                                        if (x[2] <= 5.924999952316284) {
                                                            votes[0] += 1;
                                                        }

                                                        else {
                                                            if (x[1] <= -1.8650000095367432) {
                                                                votes[0] += 1;
                                                            }

                                                            else {
                                                                votes[0] += 1;
                                                            }
                                                        }
                                                    }

                                                    else {
                                                        votes[1] += 1;
                                                    }
                                                }

                                                else {
                                                    votes[0] += 1;
                                                }
                                            }

                                            else {
                                                if (x[4] <= -19.115000247955322) {
                                                    votes[0] += 1;
                                                }

                                                else {
                                                    votes[1] += 1;
                                                }
                                            }
                                        }

                                        else {
                                            if (x[3] <= -0.5450000166893005) {
                                                votes[1] += 1;
                                            }

                                            else {
                                                if (x[2] <= -0.39499999582767487) {
                                                    if (x[2] <= -0.45499999821186066) {
                                                        votes[0] += 1;
                                                    }

                                                    else {
                                                        votes[1] += 1;
                                                    }
                                                }

                                                else {
                                                    votes[0] += 1;
                                                }
                                            }
                                        }
                                    }

                                    else {
                                        if (x[0] <= 2496.5) {
                                            if (x[4] <= -10.885000228881836) {
                                                if (x[0] <= 1440.0) {
                                                    votes[0] += 1;
                                                }

                                                else {
                                                    if (x[1] <= -1.1800000071525574) {
                                                        votes[1] += 1;
                                                    }

                                                    else {
                                                        if (x[3] <= -0.5550000071525574) {
                                                            if (x[4] <= -13.179999828338623) {
                                                                votes[0] += 1;
                                                            }

                                                            else {
                                                                votes[1] += 1;
                                                            }
                                                        }

                                                        else {
                                                            if (x[2] <= 0.6299999803304672) {
                                                                votes[0] += 1;
                                                            }

                                                            else {
                                                                votes[1] += 1;
                                                            }
                                                        }
                                                    }
                                                }
                                            }

                                            else {
                                                if (x[5] <= -0.4050000011920929) {
                                                    if (x[5] <= -10.089999675750732) {
                                                        if (x[5] <= -10.87000036239624) {
                                                            votes[0] += 1;
                                                        }

                                                        else {
                                                            if (x[0] <= 1447.0) {
                                                                votes[0] += 1;
                                                            }

                                                            else {
                                                                votes[0] += 1;
                                                            }
                                                        }
                                                    }

                                                    else {
                                                        if (x[5] <= -9.055000305175781) {
                                                            if (x[1] <= -0.7649999782443047) {
                                                                votes[0] += 1;
                                                            }

                                                            else {
                                                                votes[1] += 1;
                                                            }
                                                        }

                                                        else {
                                                            if (x[2] <= 2.490000009536743) {
                                                                votes[0] += 1;
                                                            }

                                                            else {
                                                                votes[1] += 1;
                                                            }
                                                        }
                                                    }
                                                }

                                                else {
                                                    if (x[1] <= 1.149999976158142) {
                                                        if (x[0] <= 2495.0) {
                                                            if (x[3] <= -0.24499999731779099) {
                                                                votes[1] += 1;
                                                            }

                                                            else {
                                                                votes[1] += 1;
                                                            }
                                                        }

                                                        else {
                                                            if (x[3] <= -0.07500000298023224) {
                                                                votes[0] += 1;
                                                            }

                                                            else {
                                                                votes[1] += 1;
                                                            }
                                                        }
                                                    }

                                                    else {
                                                        if (x[2] <= 2.8950001001358032) {
                                                            if (x[4] <= 0.9700000286102295) {
                                                                votes[1] += 1;
                                                            }

                                                            else {
                                                                votes[0] += 1;
                                                            }
                                                        }

                                                        else {
                                                            votes[1] += 1;
                                                        }
                                                    }
                                                }
                                            }
                                        }

                                        else {
                                            if (x[1] <= 0.20499999821186066) {
                                                votes[0] += 1;
                                            }

                                            else {
                                                if (x[5] <= 0.8850000239908695) {
                                                    votes[0] += 1;
                                                }

                                                else {
                                                    votes[1] += 1;
                                                }
                                            }
                                        }
                                    }
                                }

                                else {
                                    if (x[5] <= -2.59499990940094) {
                                        if (x[3] <= 0.6450000107288361) {
                                            if (x[5] <= -4.179999828338623) {
                                                if (x[0] <= 2305.5) {
                                                    if (x[2] <= 3.475000023841858) {
                                                        if (x[0] <= 1894.0) {
                                                            if (x[4] <= 8.380000114440918) {
                                                                votes[0] += 1;
                                                            }

                                                            else {
                                                                votes[1] += 1;
                                                            }
                                                        }

                                                        else {
                                                            votes[1] += 1;
                                                        }
                                                    }

                                                    else {
                                                        votes[0] += 1;
                                                    }
                                                }

                                                else {
                                                    votes[0] += 1;
                                                }
                                            }

                                            else {
                                                if (x[4] <= 7.480000019073486) {
                                                    votes[1] += 1;
                                                }

                                                else {
                                                    if (x[4] <= 8.375) {
                                                        votes[0] += 1;
                                                    }

                                                    else {
                                                        if (x[3] <= -0.04999999888241291) {
                                                            if (x[1] <= -0.4899999871850014) {
                                                                votes[1] += 1;
                                                            }

                                                            else {
                                                                votes[0] += 1;
                                                            }
                                                        }

                                                        else {
                                                            if (x[0] <= 860.0) {
                                                                votes[1] += 1;
                                                            }

                                                            else {
                                                                votes[0] += 1;
                                                            }
                                                        }
                                                    }
                                                }
                                            }
                                        }

                                        else {
                                            if (x[1] <= 1.104999989271164) {
                                                if (x[1] <= -1.4850000143051147) {
                                                    if (x[0] <= 1640.5) {
                                                        votes[0] += 1;
                                                    }

                                                    else {
                                                        votes[1] += 1;
                                                    }
                                                }

                                                else {
                                                    votes[0] += 1;
                                                }
                                            }

                                            else {
                                                votes[1] += 1;
                                            }
                                        }
                                    }

                                    else {
                                        if (x[3] <= 0.32500000298023224) {
                                            if (x[1] <= 2.0699999928474426) {
                                                if (x[3] <= 0.1249999962747097) {
                                                    if (x[2] <= 0.5949999988079071) {
                                                        if (x[0] <= 34.0) {
                                                            if (x[5] <= -1.1599999964237213) {
                                                                votes[0] += 1;
                                                            }

                                                            else {
                                                                votes[1] += 1;
                                                            }
                                                        }

                                                        else {
                                                            if (x[1] <= -0.8849999904632568) {
                                                                votes[1] += 1;
                                                            }

                                                            else {
                                                                votes[1] += 1;
                                                            }
                                                        }
                                                    }

                                                    else {
                                                        if (x[0] <= 2470.5) {
                                                            if (x[4] <= 9.559999942779541) {
                                                                votes[1] += 1;
                                                            }

                                                            else {
                                                                votes[0] += 1;
                                                            }
                                                        }

                                                        else {
                                                            votes[0] += 1;
                                                        }
                                                    }
                                                }

                                                else {
                                                    if (x[1] <= -0.6399999856948853) {
                                                        votes[0] += 1;
                                                    }

                                                    else {
                                                        if (x[3] <= 0.1550000011920929) {
                                                            if (x[2] <= 0.45500000938773155) {
                                                                votes[1] += 1;
                                                            }

                                                            else {
                                                                votes[0] += 1;
                                                            }
                                                        }

                                                        else {
                                                            if (x[5] <= -2.1699999570846558) {
                                                                votes[1] += 1;
                                                            }

                                                            else {
                                                                votes[1] += 1;
                                                            }
                                                        }
                                                    }
                                                }
                                            }

                                            else {
                                                votes[0] += 1;
                                            }
                                        }

                                        else {
                                            if (x[1] <= -0.5199999809265137) {
                                                if (x[2] <= 1.5350000262260437) {
                                                    votes[0] += 1;
                                                }

                                                else {
                                                    votes[1] += 1;
                                                }
                                            }

                                            else {
                                                if (x[1] <= 0.35999999940395355) {
                                                    if (x[1] <= -0.3049999922513962) {
                                                        if (x[4] <= 8.585000038146973) {
                                                            if (x[1] <= -0.44999998807907104) {
                                                                votes[0] += 1;
                                                            }

                                                            else {
                                                                votes[1] += 1;
                                                            }
                                                        }

                                                        else {
                                                            votes[1] += 1;
                                                        }
                                                    }

                                                    else {
                                                        if (x[5] <= 0.6850000023841858) {
                                                            if (x[2] <= 0.679999977350235) {
                                                                votes[0] += 1;
                                                            }

                                                            else {
                                                                votes[1] += 1;
                                                            }
                                                        }

                                                        else {
                                                            if (x[1] <= -0.2800000011920929) {
                                                                votes[0] += 1;
                                                            }

                                                            else {
                                                                votes[1] += 1;
                                                            }
                                                        }
                                                    }
                                                }

                                                else {
                                                    votes[0] += 1;
                                                }
                                            }
                                        }
                                    }
                                }
                            }

                            else {
                                if (x[3] <= -0.29999999701976776) {
                                    if (x[5] <= 0.0) {
                                        votes[0] += 1;
                                    }

                                    else {
                                        if (x[0] <= 2124.0) {
                                            if (x[1] <= -1.8699999451637268) {
                                                votes[0] += 1;
                                            }

                                            else {
                                                if (x[1] <= -1.6549999713897705) {
                                                    votes[1] += 1;
                                                }

                                                else {
                                                    votes[0] += 1;
                                                }
                                            }
                                        }

                                        else {
                                            if (x[0] <= 2246.0) {
                                                votes[1] += 1;
                                            }

                                            else {
                                                votes[0] += 1;
                                            }
                                        }
                                    }
                                }

                                else {
                                    if (x[4] <= -18.570000648498535) {
                                        votes[0] += 1;
                                    }

                                    else {
                                        if (x[0] <= 1856.0) {
                                            votes[0] += 1;
                                        }

                                        else {
                                            if (x[3] <= 0.8149999976158142) {
                                                if (x[4] <= -15.830000400543213) {
                                                    if (x[5] <= -9.315000355243683) {
                                                        votes[1] += 1;
                                                    }

                                                    else {
                                                        votes[0] += 1;
                                                    }
                                                }

                                                else {
                                                    votes[1] += 1;
                                                }
                                            }

                                            else {
                                                votes[0] += 1;
                                            }
                                        }
                                    }
                                }
                            }
                        }

                        // tree #3
                        if (x[5] <= -2.375) {
                            if (x[0] <= 1813.0) {
                                if (x[5] <= -5.0950000286102295) {
                                    if (x[4] <= 7.434999942779541) {
                                        if (x[4] <= 6.504999876022339) {
                                            votes[0] += 1;
                                        }

                                        else {
                                            if (x[1] <= -0.5350000113248825) {
                                                votes[0] += 1;
                                            }

                                            else {
                                                if (x[4] <= 6.809999942779541) {
                                                    votes[1] += 1;
                                                }

                                                else {
                                                    votes[0] += 1;
                                                }
                                            }
                                        }
                                    }

                                    else {
                                        if (x[2] <= -0.8799999952316284) {
                                            votes[0] += 1;
                                        }

                                        else {
                                            if (x[5] <= -8.115000247955322) {
                                                votes[0] += 1;
                                            }

                                            else {
                                                votes[1] += 1;
                                            }
                                        }
                                    }
                                }

                                else {
                                    if (x[4] <= 8.380000114440918) {
                                        if (x[2] <= 1.9699999690055847) {
                                            if (x[5] <= -3.0449999570846558) {
                                                if (x[1] <= -0.14500000327825546) {
                                                    if (x[3] <= 1.5449999570846558) {
                                                        votes[0] += 1;
                                                    }

                                                    else {
                                                        if (x[3] <= 1.8349999785423279) {
                                                            votes[1] += 1;
                                                        }

                                                        else {
                                                            votes[0] += 1;
                                                        }
                                                    }
                                                }

                                                else {
                                                    votes[0] += 1;
                                                }
                                            }

                                            else {
                                                if (x[4] <= 8.320000171661377) {
                                                    if (x[0] <= 1521.5) {
                                                        votes[0] += 1;
                                                    }

                                                    else {
                                                        if (x[2] <= -4.4999998807907104) {
                                                            votes[0] += 1;
                                                        }

                                                        else {
                                                            votes[1] += 1;
                                                        }
                                                    }
                                                }

                                                else {
                                                    if (x[1] <= -0.16999998688697815) {
                                                        votes[1] += 1;
                                                    }

                                                    else {
                                                        votes[0] += 1;
                                                    }
                                                }
                                            }
                                        }

                                        else {
                                            if (x[0] <= 1698.0) {
                                                if (x[4] <= 0.7799999713897705) {
